FANN_FLO_2.1
num_layers=3
learning_rate=0.150000
connection_rate=0.250000
network_type=0
learning_momentum=0.000000
training_algorithm=1
train_error_function=1
train_stop_function=0
cascade_output_change_fraction=0.010000
quickprop_decay=-0.000100
quickprop_mu=1.750000
rprop_increase_factor=1.200000
rprop_decrease_factor=0.500000
rprop_delta_min=0.000000
rprop_delta_max=50.000000
rprop_delta_zero=0.100000
cascade_output_stagnation_epochs=12
cascade_candidate_change_fraction=0.010000
cascade_candidate_stagnation_epochs=12
cascade_max_out_epochs=150
cascade_min_out_epochs=50
cascade_max_cand_epochs=150
cascade_min_cand_epochs=50
cascade_num_candidate_groups=2
bit_fail_limit=3.49999999999999980000e-001
cascade_candidate_limit=1.00000000000000000000e+003
cascade_weight_multiplier=4.00000000000000020000e-001
cascade_activation_functions_count=10
cascade_activation_functions=3 5 7 8 10 11 14 15 16 17 
cascade_activation_steepnesses_count=4
cascade_activation_steepnesses=2.50000000000000000000e-001 5.00000000000000000000e-001 7.50000000000000000000e-001 1.00000000000000000000e+000 
layer_sizes=49 26 3 
scale_included=0
neurons (num_inputs, activation_function, activation_steepness)=(0, 0, 0.00000000000000000000e+000) (0, 0, 0.00000000000000000000e+000) (0, 0, 0.00000000000000000000e+000) (0, 0, 0.00000000000000000000e+000) (0, 0, 0.00000000000000000000e+000) (0, 0, 0.00000000000000000000e+000) (0, 0, 0.00000000000000000000e+000) (0, 0, 0.00000000000000000000e+000) (0, 0, 0.00000000000000000000e+000) (0, 0, 0.00000000000000000000e+000) (0, 0, 0.00000000000000000000e+000) (0, 0, 0.00000000000000000000e+000) (0, 0, 0.00000000000000000000e+000) (0, 0, 0.00000000000000000000e+000) (0, 0, 0.00000000000000000000e+000) (0, 0, 0.00000000000000000000e+000) (0, 0, 0.00000000000000000000e+000) (0, 0, 0.00000000000000000000e+000) (0, 0, 0.00000000000000000000e+000) (0, 0, 0.00000000000000000000e+000) (0, 0, 0.00000000000000000000e+000) (0, 0, 0.00000000000000000000e+000) (0, 0, 0.00000000000000000000e+000) (0, 0, 0.00000000000000000000e+000) (0, 0, 0.00000000000000000000e+000) (0, 0, 0.00000000000000000000e+000) (0, 0, 0.00000000000000000000e+000) (0, 0, 0.00000000000000000000e+000) (0, 0, 0.00000000000000000000e+000) (0, 0, 0.00000000000000000000e+000) (0, 0, 0.00000000000000000000e+000) (0, 0, 0.00000000000000000000e+000) (0, 0, 0.00000000000000000000e+000) (0, 0, 0.00000000000000000000e+000) (0, 0, 0.00000000000000000000e+000) (0, 0, 0.00000000000000000000e+000) (0, 0, 0.00000000000000000000e+000) (0, 0, 0.00000000000000000000e+000) (0, 0, 0.00000000000000000000e+000) (0, 0, 0.00000000000000000000e+000) (0, 0, 0.00000000000000000000e+000) (0, 0, 0.00000000000000000000e+000) (0, 0, 0.00000000000000000000e+000) (0, 0, 0.00000000000000000000e+000) (0, 0, 0.00000000000000000000e+000) (0, 0, 0.00000000000000000000e+000) (0, 0, 0.00000000000000000000e+000) (0, 0, 0.00000000000000000000e+000) (0, 0, 0.00000000000000000000e+000) (13, 4, 5.00000000000000000000e-001) (13, 4, 5.00000000000000000000e-001) (13, 4, 5.00000000000000000000e-001) (13, 4, 5.00000000000000000000e-001) (13, 4, 5.00000000000000000000e-001) (13, 4, 5.00000000000000000000e-001) (13, 4, 5.00000000000000000000e-001) (13, 4, 5.00000000000000000000e-001) (13, 4, 5.00000000000000000000e-001) (13, 4, 5.00000000000000000000e-001) (13, 4, 5.00000000000000000000e-001) (13, 4, 5.00000000000000000000e-001) (13, 4, 5.00000000000000000000e-001) (13, 4, 5.00000000000000000000e-001) (13, 4, 5.00000000000000000000e-001) (13, 4, 5.00000000000000000000e-001) (13, 4, 5.00000000000000000000e-001) (13, 4, 5.00000000000000000000e-001) (13, 4, 5.00000000000000000000e-001) (13, 4, 5.00000000000000000000e-001) (13, 4, 5.00000000000000000000e-001) (13, 4, 5.00000000000000000000e-001) (13, 4, 5.00000000000000000000e-001) (13, 4, 5.00000000000000000000e-001) (13, 4, 5.00000000000000000000e-001) (0, 0, 0.00000000000000000000e+000) (13, 6, 5.00000000000000000000e-001) (14, 6, 5.00000000000000000000e-001) (0, 6, 0.00000000000000000000e+000) 
connections (connected_to_neuron, weight)=(48, -4.86505093487914350000e-002) (20, -7.19986878269779220000e-002) (25, -5.80559023028652190000e-002) (37, 6.39560407528866430000e-005) (38, -3.93578603749622850000e-002) (29, -2.94847515032480580000e-002) (46, -9.57400943612849300000e-002) (34, -4.31608149146471830000e-002) (3, 5.58868897187213620000e-002) (15, 1.77210786654850090000e-002) (5, 1.08763316282434270000e-001) (30, -2.32390649328909200000e-003) (12, -8.57349163295649670000e-002) (48, 3.26473882564488620000e-002) (26, 1.27381877212374230000e-001) (35, 9.92918610042671790000e-002) (29, 1.62588937484796160000e-001) (32, 1.15836689954950990000e-001) (7, 1.20866703288420420000e-001) (30, 9.18290313506526370000e-002) (9, 8.14817187122889170000e-002) (4, 8.78410734247735690000e-002) (38, 5.05710112359753150000e-002) (28, 9.30313708993132510000e-002) (20, 1.37737657944174770000e-002) (36, 1.84288663260702530000e-001) (48, 9.72673176336635300000e-002) (8, -4.55568035625381200000e-002) (29, 1.52843433561295710000e-001) (30, 2.61693760937875240000e-002) (46, 1.44407886690965990000e-001) (10, 1.18643141998803940000e-001) (17, 2.19583274555812110000e-002) (5, -3.62785446904005730000e-002) (38, 1.08984229191356950000e-001) (35, -1.16361212370417640000e-002) (20, 3.49061562008634720000e-002) (9, 9.31847502160251810000e-002) (36, 3.68179033670161460000e-002) (48, 1.26527016488758030000e-001) (27, 1.15555501908681300000e-001) (37, 3.69848247929032010000e-002) (44, 1.21139637487754280000e-001) (8, 6.46240451302799310000e-002) (46, 1.54724777981179190000e-002) (5, 1.61973785475361730000e-001) (22, 1.06218222623209330000e-001) (6, 5.08575248782173400000e-002) (7, 4.18179272448788440000e-002) (1, 1.02297055486334480000e-001) (12, 5.69682219491419520000e-002) (4, 6.45218061106621050000e-002) (48, 1.41455080293080320000e-001) (5, 2.72447568656322620000e-002) (23, 8.41584092469904730000e-002) (7, 1.23550223276872550000e-001) (42, 1.63517533407507020000e-001) (8, 2.96491329475353850000e-002) (45, 1.43723236907630470000e-001) (4, 1.94625816328061970000e-001) (33, 1.20526544659473810000e-001) (10, -7.80714328687241110000e-003) (47, 8.34626117568755270000e-002) (16, -4.78365849231993170000e-002) (20, 8.71541074744803110000e-002) (48, 3.99264386538324550000e-002) (15, -6.92453835874827090000e-002) (39, -1.56772590627515680000e-003) (3, -3.86148215151301990000e-003) (18, 1.53613675058010030000e-002) (4, 1.14481409784804310000e-001) (19, -2.01072688827384530000e-002) (14, 8.46519901699677310000e-002) (42, -1.36855554051886210000e-002) (35, -2.10734703744015020000e-003) (27, -1.48056323408333260000e-003) (36, 1.08120895001787110000e-001) (43, 1.45347577241966900000e-001) (48, -3.97113439372155030000e-002) (7, -4.53922666059779420000e-002) (24, 1.44484785070396300000e-001) (47, 1.32798003883896930000e-001) (29, 5.99350951656670090000e-002) (11, -5.20096438425464570000e-002) (27, 1.32283635606681470000e-001) (2, 1.37030244220381590000e-002) (44, 1.34374387589703570000e-002) (22, 8.68759121746435870000e-003) (28, 9.87838205750423550000e-003) (8, 6.63729160145542510000e-002) (23, 1.32088434347592270000e-002) (48, 1.71211267870861120000e-002) (0, -4.68599860939988570000e-002) (18, 4.81145145393547320000e-002) (23, -4.59384171744996180000e-003) (46, 4.44768542932819780000e-002) (9, 5.22715646690803000000e-004) (2, -5.83690530123848540000e-003) (39, 4.04428443735331200000e-003) (4, 1.14538975616447890000e-001) (41, 1.31781296292765610000e-001) (32, -2.87314853638001710000e-003) (7, -5.31447392046894490000e-002) (15, 3.14131741594866200000e-002) (48, 1.41581630610665000000e-001) (1, 1.13297068301452500000e-001) (11, 7.51561520306412430000e-002) (43, 1.06392001114060280000e-001) (30, 8.39631503943576580000e-002) (47, 1.80216095280652740000e-001) (38, 1.68885609972615370000e-001) (7, 6.16692447756356860000e-002) (44, 4.49169761135416940000e-002) (0, 2.06110856281141310000e-001) (29, 3.90046516765282650000e-002) (41, 3.01640350925782880000e-002) (40, 1.24161902067971830000e-001) (48, 1.10069820573484290000e-001) (46, 9.69938640031830920000e-002) (19, 1.62119471505440980000e-001) (1, 1.22316481630053530000e-001) (22, -2.41785422233864250000e-002) (29, 4.28432967365620990000e-002) (45, 1.44333388350841780000e-001) (47, 4.36348745292041150000e-002) (30, 8.63629910466289820000e-003) (32, 1.11660838681283160000e-002) (34, 1.05961130733113400000e-001) (23, 5.13029336348245140000e-002) (36, 6.48745643400402140000e-002) (48, 1.26499729233008010000e-001) (2, 9.76291349247115360000e-002) (22, 8.29216067717446770000e-002) (17, -1.06499641889910910000e-002) (43, 1.97110237672388580000e-001) (33, 1.48469046002861450000e-001) (28, -2.76276921978434730000e-002) (45, 6.45409348953215890000e-003) (30, 1.00682174883708240000e-001) (23, 3.02396857077998070000e-003) (46, 1.62654204120679770000e-001) (27, 8.13720205072481360000e-002) (9, -5.76081371152436720000e-002) (48, -4.72869423587855830000e-002) (45, -1.08330844710191200000e-003) (35, -3.58418880858127130000e-002) (13, -8.57337658609536310000e-002) (27, 7.70761027260805090000e-002) (18, -4.26030188930075840000e-002) (20, -7.89255021389543700000e-002) (22, -1.63431681165743630000e-002) (16, -8.78604349682897000000e-002) (11, 3.07712129233905160000e-002) (37, -2.92514943392631760000e-002) (41, 3.07835889100704880000e-002) (0, -7.99048259192166600000e-002) (48, 1.01464754763072830000e-001) (13, -4.97414446599157080000e-002) (28, 6.16268412483114430000e-002) (22, 1.14476033919365170000e-001) (40, 1.17261476128418060000e-001) (35, 7.67261541640459760000e-002) (29, 8.37331402923711080000e-004) (17, -4.52408933468595040000e-002) (7, 1.33119687367786650000e-001) (10, 8.95989754248806280000e-002) (46, 1.34369945599707020000e-001) (36, 5.56875825711939660000e-002) (44, 9.94760559581293060000e-002) (48, 7.70197978139544880000e-002) (4, -8.13986374787754870000e-003) (17, -7.50077376777465600000e-004) (38, 6.56694318689815540000e-002) (14, -1.64493004327515430000e-002) (37, 7.40721828146464340000e-002) (31, 1.00413900595422910000e-001) (47, 1.25418148120785000000e-001) (41, 1.17068862404373350000e-001) (13, 5.68516837212838660000e-002) (33, -1.86540717217319940000e-003) (40, 5.60889812690568420000e-002) (19, 1.48215558259588680000e-001) (48, 2.93209296268008260000e-002) (2, -5.21205732641137130000e-002) (6, -8.44417069015084430000e-002) (22, -7.47500016502761070000e-002) (31, -1.46514186426761180000e-002) (34, -2.95374650231817810000e-003) (47, 6.99646406602117270000e-002) (46, -5.95093186569502770000e-002) (29, 1.83360194760349290000e-002) (43, 3.05931663042166430000e-002) (17, 7.34205803525143660000e-003) (13, -9.08823383772216220000e-002) (16, 6.53765317624041970000e-002) (48, -4.24324750317269480000e-003) (10, 1.10976351319386230000e-001) (13, 1.05437047824664180000e-001) (35, 1.48980639869796840000e-001) (44, -4.26343681613001940000e-002) (34, 1.40888278473067870000e-002) (36, 2.77668530536131640000e-002) (39, 7.41443382321609200000e-002) (20, 1.23946112619818110000e-001) (46, -1.90016284336718060000e-002) (7, 1.65760020601067650000e-001) (17, 1.15260407691400850000e-002) (14, -5.85145019000078290000e-002) (48, 5.44137477869064480000e-002) (9, 4.47205241460585520000e-002) (40, 1.36765653580677130000e-001) (42, -1.01490245733378460000e-001) (39, -3.33666902799750750000e-002) (1, 2.91154392388090660000e-002) (6, 2.91847523416967450000e-002) (20, 9.11042049829287050000e-002) (10, -1.25896685875910110000e-002) (12, 7.46202696556130250000e-002) (17, -2.84917512989058370000e-002) (32, 3.13304047844539870000e-002) (23, -3.42819987762740460000e-002) (48, -7.00996774288227820000e-002) (14, 9.12082703082170710000e-002) (36, 1.50658821713844090000e-002) (26, 7.85500956624761020000e-002) (15, 8.88966377061265950000e-003) (11, 2.80195292782002730000e-002) (13, 3.13681249966167790000e-002) (18, 1.72135441842075010000e-002) (17, -7.63134641979615770000e-003) (21, 1.26598780813200580000e-001) (28, 6.22152054614901680000e-002) (46, 7.25196768701383280000e-002) (29, 8.34990881157827990000e-002) (48, 1.23776971141682860000e-002) (44, 3.65177482616490380000e-002) (21, 1.23534150358113130000e-001) (4, 1.63696926929446150000e-001) (40, 4.04821871645368310000e-002) (34, -1.81771659369401840000e-002) (7, 2.73372120569616470000e-002) (33, 6.96224922702265700000e-003) (45, 9.33320028244504770000e-002) (3, 1.02647344963065740000e-001) (24, 9.27459985053025740000e-002) (19, 1.36141872121625540000e-001) (35, 7.18354652831768860000e-002) (48, -7.56279310930021470000e-003) (2, -4.37365992725281400000e-002) (47, 9.10055514661594900000e-002) (3, 1.42328129094472730000e-001) (15, -6.77161654384390720000e-002) (13, -5.72734788440777200000e-002) (12, 8.47869074273459450000e-002) (43, 1.37096826137174220000e-001) (36, 1.12888419875407380000e-002) (20, 1.33111309060877700000e-001) (38, -6.11038153694930670000e-002) (40, 4.88069546137006180000e-002) (28, 5.76553266417413680000e-002) (48, 8.72197880256662120000e-002) (12, 7.16961393397357560000e-003) (28, 1.06940825670231040000e-001) (43, 7.10858470866132240000e-002) (36, 3.76388779118186980000e-002) (1, 8.04810884090666890000e-003) (30, 1.24693755248345830000e-001) (3, -4.54918348696789570000e-003) (31, 7.30270725138184030000e-002) (44, -4.22832539338926160000e-002) (26, 1.14980820947316380000e-001) (23, 2.38793861295376610000e-002) (45, -3.86471252813389220000e-002) (48, 9.65972976259399100000e-002) (3, 2.40027475799007880000e-002) (16, -1.70238308249734690000e-003) (32, -7.36790163094463990000e-003) (38, 6.80708705772352720000e-003) (10, -5.75926129464349250000e-002) (5, -6.47484122664765270000e-002) (36, -2.43938775287842610000e-002) (33, 1.24802431578181720000e-001) (30, 9.61656610862945270000e-002) (4, 5.36969698757777810000e-002) (29, -1.77755623278466540000e-002) (26, -5.20303063256549130000e-003) (48, -6.49414008293620480000e-002) (33, -5.01641915677662060000e-002) (41, 4.82287247007101570000e-002) (19, -3.35730499984633060000e-002) (39, -1.57472486899118480000e-002) (5, 5.45121961792867230000e-002) (16, -7.24042603077539730000e-002) (36, -4.75071733409943090000e-002) (14, 7.56204283281399350000e-002) (47, -6.32449021733596520000e-002) (20, 5.64709104468477660000e-002) (15, -9.73637602540111150000e-003) (25, -1.96575729007106360000e-002) (48, 1.06795430171012850000e-002) (45, 5.47093769754731190000e-003) (7, 7.05539033494630850000e-002) (16, 4.23472207037011020000e-002) (26, 4.03215020259732190000e-002) (33, -1.99793662972132250000e-003) (17, -8.46919858025596410000e-002) (35, 1.21135943821540190000e-002) (22, 5.31018381375446200000e-002) (41, 1.17700744480835590000e-001) (30, 6.73342566342259860000e-002) (8, -1.91560382807605920000e-002) (28, -3.45945671318462630000e-002) (48, 4.65825499392960030000e-002) (19, 2.08053845251752660000e-001) (21, -1.72992900733042880000e-002) (37, -3.33861718531349650000e-002) (34, 1.21928638688394060000e-001) (14, 3.92868146002316730000e-002) (10, 9.31617467675899080000e-003) (33, 1.35361762144645510000e-001) (42, 1.69935448278348330000e-001) (16, 3.19287333232943230000e-002) (18, 1.33944445093467420000e-001) (43, 1.59016425724670760000e-001) (8, 1.72405597514565380000e-001) (74, 7.49806131018053820000e-001) (50, 7.32285662126945350000e-001) (53, 7.11248291588584940000e-001) (56, 3.26416542831325260000e-001) (57, 7.50887079053492390000e-001) (62, 5.57747458508457420000e-001) (63, 2.74138421660870210000e-001) (65, 3.16036921070841800000e-001) (68, 4.30698166965921280000e-001) (70, 3.68041404967786810000e-001) (71, 2.82908771081492040000e-001) (72, 4.05334910426889570000e-001) (73, 7.15745054584465020000e-001) (74, -8.00466868597087160000e-001) (49, -2.10724578665965720000e-001) (51, -4.93214978861407800000e-001) (52, -5.51319684888430750000e-001) (54, -3.85948977163132420000e-001) (55, -4.24260865038104400000e-001) (58, -5.18068951285380330000e-001) (59, -5.92644562298645590000e-001) (60, -2.26113008626817460000e-001) (61, -5.55195597676790160000e-001) (64, -5.34250954457050510000e-001) (66, -4.04710279110329030000e-001) (67, -5.60388369250528930000e-001) (69, -4.45611723585883690000e-001) 
